/*
 * Copyright (c) 2025 EdgeImpulse Inc.
 *
 * Generated by Edge Impulse and licensed under the applicable Edge Impulse
 * Terms of Service. Community and Professional Terms of Service
 * (https://edgeimpulse.com/legal/terms-of-service) or Enterprise Terms of
 * Service (https://edgeimpulse.com/legal/enterprise-terms-of-service),
 * according to your product plan subscription (the “License”).
 *
 * This software, documentation and other associated files (collectively referred
 * to as the “Software”) is a single SDK variation generated by the Edge Impulse
 * platform and requires an active paid Edge Impulse subscription to use this
 * Software for any purpose.
 *
 * You may NOT use this Software unless you have an active Edge Impulse subscription
 * that meets the eligibility requirements for the applicable License, subject to
 * your full and continued compliance with the terms and conditions of the License,
 * including without limitation any usage restrictions under the applicable License.
 *
 * If you do not have an active Edge Impulse product plan subscription, or if use
 * of this Software exceeds the usage limitations of your Edge Impulse product plan
 * subscription, you are not permitted to use this Software and must immediately
 * delete and erase all copies of this Software within your control or possession.
 * Edge Impulse reserves all rights and remedies available to enforce its rights.
 *
 * Unless required by applicable law or agreed to in writing, the Software is
 * distributed on an "AS IS" BASIS, WITHOUT WARRANTIES OR CONDITIONS OF ANY KIND,
 * either express or implied. See the License for the specific language governing
 * permissions, disclaimers and limitations under the License.
 */
// Generated on: 31.12.2025 15:02:41

#include <stdio.h>
#include <stdlib.h>
#include "edge-impulse-sdk/tensorflow/lite/c/builtin_op_data.h"
#include "edge-impulse-sdk/tensorflow/lite/c/common.h"
#include "edge-impulse-sdk/tensorflow/lite/micro/micro_mutable_op_resolver.h"
#include "edge-impulse-sdk/porting/ei_classifier_porting.h"

#if EI_CLASSIFIER_PRINT_STATE
#if defined(__cplusplus) && EI_C_LINKAGE == 1
extern "C" {
    extern void ei_printf(const char *format, ...);
}
#else
extern void ei_printf(const char *format, ...);
#endif
#endif

#define STRINGIZE(x) #x
#define STRINGIZE_VALUE_OF(x) STRINGIZE(x)

#if defined (__GNUC__)  /* GNU compiler */
#define ALIGN(X) __attribute__((aligned(X)))
#define DEFINE_SECTION(x) __attribute__((section(x)))
#elif defined (_MSC_VER)
#define ALIGN(X) __declspec(align(X))
#elif defined (__TASKING__) /* TASKING Compiler */
#define ALIGN(X) __align(X)
#define DEFINE_SECTION(x) __attribute__((section(x)))
#elif defined (__ARMCC_VERSION) /* Arm Compiler */
#define ALIGN(X) __ALIGNED(x)
#define DEFINE_SECTION(x) __attribute__((section(x)))
#elif defined (__ICCARM__) /* IAR Compiler */
#define ALIGN(x) __attribute__((aligned(x)))
#define DEFINE_SECTION(x) __attribute__((section(x)))
#elif defined (__clang__) /* LLVM/Clang Compiler */
#define ALIGN(X) __ALIGNED(x)
#define DEFINE_SECTION(x) __attribute__((section(x)))
#endif

#if defined(EI_MODEL_SECTION) && (defined(__GNUC__) || defined(__clang__))
#define MODEL_SECTION(X) __attribute__((section(STRINGIZE_VALUE_OF(X))))
#else
#define MODEL_SECTION(X)
#endif

#ifndef EI_MAX_SCRATCH_BUFFER_COUNT
#ifndef CONFIG_IDF_TARGET_ESP32S3
#define EI_MAX_SCRATCH_BUFFER_COUNT 4
#else
#define EI_MAX_SCRATCH_BUFFER_COUNT 4
#endif // CONFIG_IDF_TARGET_ESP32S3
#endif // EI_MAX_SCRATCH_BUFFER_COUNT

#ifndef EI_MAX_OVERFLOW_BUFFER_COUNT
#define EI_MAX_OVERFLOW_BUFFER_COUNT 10
#endif // EI_MAX_OVERFLOW_BUFFER_COUNT

using namespace tflite;
using namespace tflite::ops;
using namespace tflite::ops::micro;

namespace {

#if defined(EI_CLASSIFIER_ALLOCATION_STATIC_HIMAX) || defined(EI_CLASSIFIER_ALLOCATION_STATIC_HIMAX_GNU)
constexpr int kTensorArenaSize = 1488;
#else
constexpr int kTensorArenaSize = 464;
#endif

#if defined(EI_CLASSIFIER_ALLOCATION_STATIC)
#if defined (EI_TENSOR_ARENA_LOCATION)
uint8_t tensor_arena[kTensorArenaSize] ALIGN(16) DEFINE_SECTION(STRINGIZE_VALUE_OF(EI_TENSOR_ARENA_LOCATION));
#else
uint8_t tensor_arena[kTensorArenaSize] ALIGN(16);
#endif
#elif defined(EI_CLASSIFIER_ALLOCATION_STATIC_HIMAX)
#pragma Bss(".tensor_arena")
uint8_t tensor_arena[kTensorArenaSize] ALIGN(16);
#pragma Bss()
#elif defined(EI_CLASSIFIER_ALLOCATION_STATIC_HIMAX_GNU)
uint8_t tensor_arena[kTensorArenaSize] ALIGN(16) __attribute__((section(".tensor_arena")));
#else
#define EI_CLASSIFIER_ALLOCATION_HEAP 1
uint8_t* tensor_arena = NULL;
#endif

static uint8_t* tensor_boundary;
static uint8_t* current_location;

template <int SZ, class T> struct TfArray {
  int sz; T elem[SZ];
};

enum used_operators_e {
  OP_FULLY_CONNECTED, OP_SOFTMAX,  OP_LAST
};

struct TensorInfo_t { // subset of TfLiteTensor used for initialization from constant memory
  TfLiteAllocationType allocation_type;
  TfLiteType type;
  void* data;
  TfLiteIntArray* dims;
  size_t bytes;
  TfLiteQuantization quantization;
};

typedef struct {
  TfLiteTensor tensor;
  int16_t index;
} TfLiteTensorWithIndex;

typedef struct {
  TfLiteEvalTensor tensor;
  int16_t index;
} TfLiteEvalTensorWithIndex;

TfLiteContext ctx{};
static const int MAX_TFL_TENSOR_COUNT = 4;
static TfLiteTensorWithIndex tflTensors[MAX_TFL_TENSOR_COUNT];
static const int MAX_TFL_EVAL_COUNT = 4;
static TfLiteEvalTensorWithIndex tflEvalTensors[MAX_TFL_EVAL_COUNT];
TfLiteRegistration registrations[OP_LAST];

namespace g0 {
const TfArray<2, int> tensor_dimension0 = { 2, { 1,126 } };
const TfArray<1, float> quant0_scale = { 1, { 0.11374357342720032, } };
const TfArray<1, int> quant0_zero = { 1, { -74 } };
const TfLiteAffineQuantization quant0 = { (TfLiteFloatArray*)&quant0_scale, (TfLiteIntArray*)&quant0_zero, 0 };
const MODEL_SECTION(EI_MODEL_SECTION) ALIGN(16) int32_t tensor_data1[4] = { -66, -37, -81, 149, };
const TfArray<1, int> tensor_dimension1 = { 1, { 4 } };
const TfArray<1, float> quant1_scale = { 1, { 0.0002887070004362613, } };
const TfArray<1, int> quant1_zero = { 1, { 0 } };
const TfLiteAffineQuantization quant1 = { (TfLiteFloatArray*)&quant1_scale, (TfLiteIntArray*)&quant1_zero, 0 };
const MODEL_SECTION(EI_MODEL_SECTION) ALIGN(16) int8_t tensor_data2[4*10] = { 
  64, 79, 111, -41, 9, -93, -127, -33, 109, 64, 
  65, -40, -86, -107, -98, -88, 8, 43, -44, -1, 
  -106, 81, -71, -93, 80, -103, 89, 61, 59, -66, 
  16, -12, 0, 47, 41, -44, 93, -36, -90, -107, 
};
const TfArray<2, int> tensor_dimension2 = { 2, { 4,10 } };
const TfArray<1, float> quant2_scale = { 1, { 0.005771818570792675, } };
const TfLiteAffineQuantization quant2 = { (TfLiteFloatArray*)&quant2_scale, (TfLiteIntArray*)&g0::quant1_zero, 0 };
const MODEL_SECTION(EI_MODEL_SECTION) ALIGN(16) int32_t tensor_data3[10] = { 120, 174, 0, -71, 49, 91, 229, 85, -98, -29, };
const TfArray<1, int> tensor_dimension3 = { 1, { 10 } };
const TfArray<1, float> quant3_scale = { 1, { 0.00019721762510016561, } };
const TfLiteAffineQuantization quant3 = { (TfLiteFloatArray*)&quant3_scale, (TfLiteIntArray*)&g0::quant1_zero, 0 };
const MODEL_SECTION(EI_MODEL_SECTION) ALIGN(16) int8_t tensor_data4[10*20] = { 
  38, -69, -64, 10, 102, 15, 127, -99, -1, -61, 33, 29, 73, 120, 64, -84, -3, -31, -71, 25, 
  -55, -112, 66, 65, 65, -40, -35, -76, -80, 5, -44, -52, 50, 33, 85, 86, -42, 33, -43, -7, 
  -22, -94, -3, 102, -47, -57, -35, 20, -40, -11, 31, 49, -21, -84, -13, -68, 82, -95, -97, -79, 
  56, 8, 91, 3, -67, 75, -61, -48, -31, 68, 94, 47, -78, -95, -6, -44, -30, -63, 99, 78, 
  -43, 60, -93, -41, -75, 68, -43, 39, -85, 75, 83, 43, -34, 48, 47, -89, -42, 105, 75, 68, 
  -85, 86, -70, 51, -21, -113, -16, 78, -110, -20, 88, 51, -66, 59, -24, -63, -44, 60, -66, 8, 
  89, 67, -58, -74, 88, 76, 17, -36, -18, 26, 77, 37, -48, -30, -5, -13, 57, -15, -16, -41, 
  -13, 88, 45, 57, -10, 84, 108, -108, 114, -38, -56, 118, 87, -15, -98, 45, 88, 15, 17, 85, 
  61, 33, 53, 37, 80, 32, -121, -30, -33, 2, 87, 18, -6, -107, -42, 90, -85, 67, -46, -43, 
  42, -78, -14, -5, 78, 98, -4, 14, 74, -104, -62, 52, -76, -49, 72, -22, -21, 79, 0, 78, 
};
const TfArray<2, int> tensor_dimension4 = { 2, { 10,20 } };
const TfArray<1, float> quant4_scale = { 1, { 0.0039380891248583794, } };
const TfLiteAffineQuantization quant4 = { (TfLiteFloatArray*)&quant4_scale, (TfLiteIntArray*)&g0::quant1_zero, 0 };
const MODEL_SECTION(EI_MODEL_SECTION) ALIGN(16) int32_t tensor_data5[20] = { -23, 114, -27, -52, 51, 0, 168, -55, -48, 89, 57, -13, 84, 74, 88, -78, 44, -32, 48, 182, };
const TfArray<1, int> tensor_dimension5 = { 1, { 20 } };
const TfArray<1, float> quant5_scale = { 1, { 0.00024359308008570224, } };
const TfLiteAffineQuantization quant5 = { (TfLiteFloatArray*)&quant5_scale, (TfLiteIntArray*)&g0::quant1_zero, 0 };
const MODEL_SECTION(EI_MODEL_SECTION) ALIGN(16) int8_t tensor_data6[20*126] = { 
  -3, -15, -22, 75, 24, 48, 29, -57, 34, -72, 0, 36, -80, -58, -18, 85, 26, 70, -42, -42, 83, -27, 78, 15, -88, 57, -43, -43, -62, -81, 25, 31, 59, -74, -85, 43, -55, 70, -6, -58, 44, -6, -72, -27, -80, 74, -35, 84, -58, -64, -14, -84, 40, -18, -76, 62, 91, 72, 95, 57, 38, -35, 12, -68, -15, -63, -1, 28, 81, -9, 25, -77, -55, -22, -17, -48, 67, 46, -10, 79, 28, -1, -13, 31, -21, 11, -92, -13, -71, -85, 35, -19, -45, 81, -7, -86, 91, 52, -68, -34, -4, -91, 21, 50, -22, -41, -35, 3, -54, -46, 76, 29, 6, 62, -44, 88, -40, 34, -90, 32, 45, 4, 23, 88, -91, -14, 
  -94, 16, 71, 25, -16, 19, 32, 27, 36, 81, -66, 34, 6, 11, 50, -57, 65, 39, 87, -63, -22, 16, 92, -14, 63, 66, -9, 72, -15, -65, -13, 87, 79, 88, 62, -30, -75, -10, 23, -44, -41, -53, 107, 25, 52, -13, 71, -57, 11, 2, -80, -1, 10, -33, -12, -96, -90, 72, 78, -75, -18, 64, -38, -3, -67, -39, 81, -91, 51, -26, 80, -54, 53, -8, 12, 71, -37, -62, -14, 76, -19, -100, -53, -7, 73, -32, -38, -49, 41, -16, 30, 29, 82, 23, 3, 50, -50, -83, 8, -89, 15, 84, -6, -18, -69, 61, 55, -72, -1, 2, -26, -84, 83, 23, -32, 74, 17, 12, -76, -72, 16, -94, -36, -57, 36, -15, 
  57, -9, -81, -69, 37, -52, 54, 76, 87, -10, -73, 12, -70, 43, -57, 63, 28, 53, -1, 38, 91, -90, 49, -73, 9, -25, 86, 43, -51, -76, -50, 59, 45, -70, -20, -33, -82, -8, 52, -73, 45, 46, -90, -18, 31, -21, -51, -78, 30, -27, 45, -23, -20, -5, 47, -79, 7, 9, 13, -23, 88, -28, -11, 13, -28, 52, 17, -53, -31, -33, -6, -93, 11, 83, -13, -77, -76, 54, -43, -53, 42, -48, 37, 0, 5, 13, -27, -5, -78, -4, -68, 76, 22, -33, 96, 66, 31, 48, 35, 30, -87, -78, -45, -63, 46, -40, 83, 70, 5, -19, -48, 45, 4, -77, -60, -79, 45, 92, -20, 41, -45, 77, 96, -87, 85, 81, 
  -83, 44, -55, 50, -13, 48, -15, 85, 40, -85, 70, 69, 40, 52, 34, -26, -77, -51, 25, 53, -67, 32, -66, -39, 51, 42, -73, 49, 72, 55, -48, 33, 72, -48, 50, 6, 85, -96, 12, 58, -83, 51, -5, 78, 83, -78, -10, -65, 50, 37, -67, -9, -24, -100, 16, -78, -86, -97, -43, -16, 80, 27, 83, 61, -56, -79, 47, -86, -65, -92, 48, -55, -56, -72, 17, 36, -18, 99, 39, 96, 24, 66, 70, -23, -23, -81, -4, -42, 51, -44, 32, 26, -83, 6, 71, -42, -55, -14, 79, -17, -25, -2, 81, -49, -39, -11, 16, -20, 11, 20, -84, 9, -9, 62, 0, 78, -90, 0, 69, 1, -82, 81, 10, 36, -72, 10, 
  78, 39, 15, -50, -62, -57, 90, -8, -28, 67, -18, 25, -49, -34, -58, 58, 62, 68, -1, -15, -5, 81, -12, -5, -26, 5, 77, 76, -77, -63, 53, -51, 92, -59, -21, -39, -23, -80, 26, 60, 15, 34, -63, -21, 27, -46, 88, 75, 2, 83, 77, 78, -62, -15, -16, 98, 68, 81, 91, 64, -71, -66, 96, 110, 3, 29, -22, 120, -69, -5, -63, 36, 72, 37, 42, 50, -26, -21, -41, -33, 75, -85, 50, -61, 36, -35, -15, -64, 59, -21, -24, 11, 27, 62, 31, 4, 20, -20, -68, -71, -19, -80, 23, -25, 87, -38, -81, -40, -55, 40, -45, 12, -42, 7, 42, 0, -33, -58, -48, -7, 87, -24, -52, -8, -78, 8, 
  -28, 70, 17, -4, -32, -74, 9, 93, -36, 20, -87, -34, -92, 44, 16, -2, -85, 27, -29, 8, -73, -77, -9, -47, 68, -24, 26, -13, -44, 92, -18, -10, 72, -57, 22, -87, 64, -54, 38, 82, 64, 36, -65, -25, 16, -92, -70, -63, -3, 59, 82, -14, 31, -38, 41, 56, 32, -12, 53, 7, 24, -89, 61, -74, -26, -1, -34, 74, 81, 42, 87, -42, 64, -69, -93, -60, -11, -14, 60, 0, -73, 35, -46, 74, -8, -72, 27, -6, 92, -16, 11, 6, -57, 72, 4, -8, -11, 30, -2, 57, -13, 28, 76, -54, 20, 15, 91, -62, 32, 51, -10, -8, 28, 54, 66, 18, 46, -73, 25, -58, -93, 52, -72, 14, 4, 87, 
  58, 10, -11, -30, -36, -74, -13, 87, -14, 21, 8, 1, 9, 58, 40, -11, -33, -46, 93, 72, -46, 20, -24, 89, -21, 1, 106, -65, 87, 35, 70, -82, 7, -8, -70, 52, -88, 36, -80, 90, -13, 15, 22, 36, -78, -57, 119, -27, 16, 5, -42, 91, -67, 68, 40, -7, 13, 83, 56, -28, -52, 15, 77, -22, 37, -18, -55, 96, -41, -29, 42, 97, -19, 45, 25, 64, 44, 76, 39, -41, 72, 57, -1, 30, -41, -1, 13, 36, -44, -29, -56, 63, -46, 74, -38, -105, -54, -73, -98, -21, -70, -64, -8, -37, 80, 3, -10, -78, -31, 14, 12, 71, 80, -81, 28, -11, 43, -36, -87, -34, -58, 10, -88, -8, -48, -85, 
  72, -113, 28, 70, 66, 23, 23, 32, -36, 80, -16, 95, -31, 43, -55, -86, -28, -44, -57, 94, 84, -40, -49, -17, -24, 94, -21, 27, -83, -9, 29, 96, 27, -73, -26, -75, -4, 38, 77, -19, -5, 39, 78, 57, 66, -24, -4, -90, -68, 34, -70, -20, -13, 20, -27, -55, -79, 64, 62, -94, -67, -33, 42, -93, 31, 57, -1, -71, -63, 83, -73, 11, -16, 45, 2, 7, -39, 44, -55, 39, 82, -101, 54, -12, 32, -116, 76, 46, 82, -30, -22, -74, 27, -37, -65, -24, -21, -65, 14, 92, -21, 61, 4, -77, -10, -36, -56, -74, 81, -40, -58, -85, 7, 39, 81, -43, 81, -16, -31, 34, -25, 32, -5, -77, 43, 40, 
  49, 97, 57, -18, -76, 55, -16, -55, -6, -19, 2, 51, 51, -39, 11, -42, 39, -48, 90, 16, 79, 41, 74, 47, 47, 42, 54, -17, 64, -92, 41, -100, -23, -12, -87, -41, -98, 64, -78, -6, -61, -63, -81, -1, -113, 30, -18, -13, -45, 32, -90, -105, 82, -70, 39, 38, 7, 40, -16, -39, 58, -27, 79, -21, 36, -84, 97, 102, 73, -44, -26, -29, 10, -88, -40, -70, -55, -24, -40, 91, -31, -42, -69, -32, 59, 55, -36, 17, 28, 38, -10, -96, -103, -46, 56, -27, 79, 14, 41, -52, -70, -60, -46, 40, 10, 61, -3, 9, 18, -15, -45, 66, 32, 42, 69, 99, 25, -54, 78, -13, 67, 74, 5, -19, 51, -85, 
  -71, 47, -75, 3, -49, 63, -79, 3, -50, -91, -77, -60, -94, -25, -62, 70, -15, 51, 63, -63, -21, 80, 29, 84, 107, 79, 17, 37, 9, 52, -33, -20, -63, 3, 70, 35, 71, 77, -7, 19, 26, 44, -47, -15, -14, -89, 55, 44, 82, -72, 54, 101, -80, -82, -51, 20, 54, 11, -83, 29, -85, -50, -66, 68, -36, -43, -90, -45, -72, 37, -68, 61, 82, 4, -16, -79, 77, -39, -103, 55, 36, 81, -86, -63, -47, 36, -45, -35, 66, 28, 81, 41, -21, -2, 12, 90, -5, -90, -77, -47, 55, -77, -85, -37, 10, 7, -112, -50, 48, 45, 49, -52, -51, -43, 77, 52, 72, 46, 59, 38, 67, -97, -51, 72, -57, 37, 
  85, 27, 33, -86, -75, -34, 59, 14, -8, 32, -71, 31, 27, -70, 46, -53, -4, 1, 34, 22, -73, 65, -77, 67, 89, 4, -31, -20, 81, 76, -78, -63, -63, -8, 107, 100, -7, -56, -54, 45, 52, 5, 6, -73, -12, 65, -6, -83, 56, 36, -22, -42, -4, 7, 79, 92, -51, -29, 38, 2, 40, 53, 76, 55, -18, -121, -95, 13, 37, 31, 65, 22, -8, -15, 26, 76, 11, -80, 31, 84, -49, -70, 31, -69, -17, 23, -22, 41, -10, -29, 14, 107, 68, -14, 12, 37, -41, 43, -86, 46, 89, 67, 53, 49, 56, -35, -15, -91, 79, 16, -16, 3, 16, 49, -86, -3, -24, 74, -37, -71, -51, -80, -56, -84, 75, 44, 
  -15, 33, 82, -31, -75, -85, 91, -38, 67, -24, 79, 84, 58, 84, -37, 41, -40, -34, 83, 2, -22, -24, 90, 17, 26, 31, 57, 44, 92, 35, -8, -20, 3, -39, 24, -22, -66, 22, 23, 48, 39, 66, 80, -7, -56, -32, 18, 42, -82, -9, -71, 61, 26, 30, 85, 53, 47, -17, 11, -70, 78, 55, 2, -25, 73, 56, 63, -9, -19, -23, -73, 1, -55, -60, 68, 19, 40, 76, 40, 15, 42, 86, -77, -51, -91, -74, -71, 42, -14, 58, 44, -77, -97, -76, 14, 27, 33, 56, -16, -25, -13, -8, 70, 66, 61, 34, 11, 92, -2, -81, -21, 18, 37, 28, -88, -64, -96, 5, 51, 34, 85, 76, 5, -18, -6, -27, 
  -32, -73, 27, -18, 73, -79, -55, -86, -71, 44, -24, -91, 20, 45, -37, 64, 7, -37, 72, -32, 38, 44, -49, 93, 53, -30, 0, -50, 72, -31, -49, 14, -98, 75, 50, 48, 65, -72, -90, -68, -20, 5, -56, -7, -125, -22, 109, 57, -9, 98, 60, -90, -99, 13, -66, -97, -69, 23, -25, 35, -36, -74, -77, 87, 44, 17, 82, 66, 13, 63, 2, -49, 38, 53, 18, -96, -42, 67, -86, -85, 10, 35, 72, 55, 84, 103, -116, -51, -2, 50, -72, 77, 8, 4, -74, -96, 25, -1, 52, -30, -73, 47, 35, 20, -12, -72, -12, 83, 57, 24, -8, -31, 2, -49, -68, 11, -53, -35, 76, 44, 47, -16, 26, -57, 23, 30, 
  35, -93, -40, 3, 90, 101, -69, 97, -3, 33, 30, 36, 92, 33, -11, -62, -91, -11, -73, -32, -68, -62, 5, -26, -31, -84, -52, 90, -5, 17, 37, -83, -62, -84, -9, 26, 46, -3, 78, -26, 89, 48, 81, -80, 98, -39, 0, 60, 99, 62, 36, 53, -61, -36, 91, -37, 13, 60, 41, -25, -9, -42, -26, -72, 57, 89, 77, 59, 16, 90, -79, -22, 57, -20, 38, -76, -58, -51, 37, -62, -47, 33, -36, -40, 60, 21, 92, 90, 7, -84, 13, 20, -61, 52, -92, -68, -45, 84, -5, -54, 10, 75, 16, -77, -66, 48, -9, -12, -18, 48, 67, -78, -56, 32, -56, 48, 50, -58, 49, -88, -8, -40, -49, -38, 78, 10, 
  116, -119, -37, 33, 23, -37, -23, 49, 63, 52, 110, -77, -66, 104, -79, -25, -72, 24, 63, -64, 89, 118, -28, 54, -74, -38, 4, -61, 89, -13, 107, -39, -33, 68, -6, -54, -67, 30, 82, -79, -86, 84, -97, 74, 24, 66, -29, -54, -87, -36, -11, 51, 38, -9, -65, -56, 88, -22, 80, -56, 2, 34, -63, 69, 50, 127, 73, 29, -23, 51, 8, -58, 86, -39, 77, 40, -42, 21, -6, 3, 43, 3, -70, -51, 29, -46, 115, 26, -50, 26, -38, 32, -8, 56, -76, 2, 76, 76, 77, 94, -88, 83, -64, 64, -83, -14, 50, -96, -23, -38, -30, 4, 100, 57, -75, 62, 99, -77, 74, 78, -45, -10, -8, -54, -64, -73, 
  -9, 72, -77, -97, -96, 17, -20, 6, 25, 22, -15, 27, -61, 35, 36, 65, 7, 33, 25, 47, -94, 69, -86, 33, 13, -8, -51, -43, -27, -61, 15, -42, -43, 40, -16, 11, -9, -96, 15, 74, 45, -54, 19, -58, 57, -67, -93, -32, -77, 56, 30, -17, 57, 71, 28, -61, 74, 34, -75, 74, 0, -61, 14, -50, 24, 47, 6, -63, -1, 51, -90, 69, 66, 72, 32, 68, -33, 29, 87, 43, -58, -48, 20, 95, 85, 64, 15, 40, 44, 85, -12, 83, 10, 50, 79, 56, -80, 50, 58, 51, 79, 90, 98, -20, 73, -68, 21, 44, 84, -63, 19, -88, -101, 8, 47, -67, -41, -89, 1, -2, -45, 27, -3, -24, 44, -14, 
  -8, -44, -37, -3, 77, -30, -39, -75, 26, -91, -90, -37, 14, 38, -40, 27, -82, -54, 33, -38, -86, -61, 27, -40, 45, -23, -24, 64, -73, 60, 27, -8, 66, -63, -35, -56, 21, -87, -49, -3, -7, -23, 23, 55, -33, -71, 75, -91, -12, -42, 2, -18, -23, -75, -19, -95, -20, -25, 55, -71, -66, 76, -59, 15, -74, 27, 10, -21, -6, 84, -82, -25, -54, 75, 65, 43, -50, 19, -63, 13, 14, 78, -100, -36, -9, 57, -15, -55, 89, -29, 6, 85, 81, 9, 9, -50, 2, -35, 77, -49, -20, -18, -22, -19, 77, 61, 40, 90, -12, -54, 46, 17, 58, -94, -92, 26, -33, 77, -60, -86, 40, -20, -63, -17, 82, 12, 
  -23, 40, 77, 62, 63, -36, -43, 71, 25, -19, -41, 84, -41, 58, -76, -40, -75, 16, 77, -61, 41, -45, -75, 88, -55, -77, -55, 23, -14, -62, -20, -79, -5, 14, -1, 83, 80, -60, 56, -89, -99, -37, 88, -26, 24, -67, 3, 82, -78, 38, -51, -62, 79, 42, 19, -79, 61, -92, -31, -55, 18, -84, 35, 82, -15, 54, -15, -3, 22, -35, 63, -44, 50, 75, 32, 10, -88, -81, 57, -84, -86, -96, -93, 5, 43, 81, -31, 17, 17, 33, -10, 81, -97, -58, 56, 37, 28, -45, 73, -96, 70, 26, -4, -67, -63, -100, -81, 94, 21, -98, -93, -52, 63, -6, -73, 18, 53, 81, -58, -25, -68, 74, 12, 71, -10, 28, 
  -73, -30, 52, -87, 50, 2, -67, -14, -8, -38, -91, -40, -85, -71, -75, -54, 1, -61, -57, 31, -52, 83, -47, 76, -35, -76, -9, -32, -90, -71, 38, -46, -65, -90, 87, 69, 21, -69, -78, -37, -74, 13, -50, 47, 0, -8, 101, 16, -80, -92, 0, -85, 37, -59, 55, -71, -66, -65, -31, 62, -35, -55, -67, 79, 54, -56, 89, -69, -1, 77, 53, 46, 66, -48, -94, 23, 79, 12, -33, 27, 21, 34, 76, -8, 50, 21, 79, 15, 0, -81, -95, 69, 54, -36, -73, -74, 46, 16, 83, -63, -100, 87, 17, 3, -53, 7, -53, -66, 10, 57, -70, 5, -99, -56, -58, -76, 37, 33, -87, -89, 76, -58, -31, 11, 21, 85, 
  33, 31, 32, -22, 11, -7, 52, 13, 95, 90, -49, 97, 86, 20, 19, -20, 18, -61, -32, 43, -20, -69, 95, -61, 12, 14, -45, -21, 46, 87, -54, 23, 87, -53, 10, 30, -91, 18, -1, -18, -65, -70, 31, 94, 31, -53, -58, 36, 4, 15, 34, 43, -80, 34, 42, -46, 47, -90, -85, 54, -99, 34, -97, 44, -31, 30, 7, -39, -67, -56, -94, 50, -45, -37, -49, 10, -95, -106, -100, -62, 50, -31, -29, -105, -20, 74, 118, 7, 41, -2, -94, 2, -75, -44, 12, -95, -77, -81, 80, -75, -52, 47, 39, -99, -44, 82, -105, -87, 15, 78, 111, 84, -55, -47, 60, 28, -2, -56, -47, -13, 87, 3, 29, -53, 15, 46, 
};
const TfArray<2, int> tensor_dimension6 = { 2, { 20,126 } };
const TfArray<1, float> quant6_scale = { 1, { 0.0021415986120700836, } };
const TfLiteAffineQuantization quant6 = { (TfLiteFloatArray*)&quant6_scale, (TfLiteIntArray*)&g0::quant1_zero, 0 };
const TfArray<2, int> tensor_dimension7 = { 2, { 1,20 } };
const TfArray<1, float> quant7_scale = { 1, { 0.050079524517059326, } };
const TfArray<1, int> quant7_zero = { 1, { -128 } };
const TfLiteAffineQuantization quant7 = { (TfLiteFloatArray*)&quant7_scale, (TfLiteIntArray*)&quant7_zero, 0 };
const TfArray<2, int> tensor_dimension8 = { 2, { 1,10 } };
const TfArray<1, float> quant8_scale = { 1, { 0.050020109862089157, } };
const TfLiteAffineQuantization quant8 = { (TfLiteFloatArray*)&quant8_scale, (TfLiteIntArray*)&g0::quant7_zero, 0 };
const TfArray<2, int> tensor_dimension9 = { 2, { 1,4 } };
const TfArray<1, float> quant9_scale = { 1, { 0.055885907262563705, } };
const TfArray<1, int> quant9_zero = { 1, { -10 } };
const TfLiteAffineQuantization quant9 = { (TfLiteFloatArray*)&quant9_scale, (TfLiteIntArray*)&quant9_zero, 0 };
const TfArray<1, float> quant10_scale = { 1, { 0.00390625, } };
const TfLiteAffineQuantization quant10 = { (TfLiteFloatArray*)&quant10_scale, (TfLiteIntArray*)&g0::quant7_zero, 0 };
const TfLiteFullyConnectedParams opdata0 = { kTfLiteActRelu, kTfLiteFullyConnectedWeightsFormatDefault, false, false };
const TfArray<3, int> inputs0 = { 3, { 0,6,5 } };
const TfArray<1, int> outputs0 = { 1, { 7 } };
const TfLiteFullyConnectedParams opdata1 = { kTfLiteActRelu, kTfLiteFullyConnectedWeightsFormatDefault, false, false };
const TfArray<3, int> inputs1 = { 3, { 7,4,3 } };
const TfArray<1, int> outputs1 = { 1, { 8 } };
const TfLiteFullyConnectedParams opdata2 = { kTfLiteActNone, kTfLiteFullyConnectedWeightsFormatDefault, false, false };
const TfArray<3, int> inputs2 = { 3, { 8,2,1 } };
const TfArray<1, int> outputs2 = { 1, { 9 } };
const TfLiteSoftmaxParams opdata3 = { 1 };
const TfArray<1, int> inputs3 = { 1, { 9 } };
const TfArray<1, int> outputs3 = { 1, { 10 } };
};

TensorInfo_t tensorData[] = {
{ kTfLiteArenaRw, kTfLiteInt8, (int32_t*)(tensor_arena + 0), (TfLiteIntArray*)&g0::tensor_dimension0, 126, {kTfLiteAffineQuantization, const_cast<void*>(static_cast<const void*>(&g0::quant0))}, },
{ kTfLiteMmapRo, kTfLiteInt32, (int32_t*)g0::tensor_data1, (TfLiteIntArray*)&g0::tensor_dimension1, 16, {kTfLiteAffineQuantization, const_cast<void*>(static_cast<const void*>(&g0::quant1))}, },
{ kTfLiteMmapRo, kTfLiteInt8, (int32_t*)g0::tensor_data2, (TfLiteIntArray*)&g0::tensor_dimension2, 40, {kTfLiteAffineQuantization, const_cast<void*>(static_cast<const void*>(&g0::quant2))}, },
{ kTfLiteMmapRo, kTfLiteInt32, (int32_t*)g0::tensor_data3, (TfLiteIntArray*)&g0::tensor_dimension3, 40, {kTfLiteAffineQuantization, const_cast<void*>(static_cast<const void*>(&g0::quant3))}, },
{ kTfLiteMmapRo, kTfLiteInt8, (int32_t*)g0::tensor_data4, (TfLiteIntArray*)&g0::tensor_dimension4, 200, {kTfLiteAffineQuantization, const_cast<void*>(static_cast<const void*>(&g0::quant4))}, },
{ kTfLiteMmapRo, kTfLiteInt32, (int32_t*)g0::tensor_data5, (TfLiteIntArray*)&g0::tensor_dimension5, 80, {kTfLiteAffineQuantization, const_cast<void*>(static_cast<const void*>(&g0::quant5))}, },
{ kTfLiteMmapRo, kTfLiteInt8, (int32_t*)g0::tensor_data6, (TfLiteIntArray*)&g0::tensor_dimension6, 2520, {kTfLiteAffineQuantization, const_cast<void*>(static_cast<const void*>(&g0::quant6))}, },
{ kTfLiteArenaRw, kTfLiteInt8, (int32_t*)(tensor_arena + 128), (TfLiteIntArray*)&g0::tensor_dimension7, 20, {kTfLiteAffineQuantization, const_cast<void*>(static_cast<const void*>(&g0::quant7))}, },
{ kTfLiteArenaRw, kTfLiteInt8, (int32_t*)(tensor_arena + 0), (TfLiteIntArray*)&g0::tensor_dimension8, 10, {kTfLiteAffineQuantization, const_cast<void*>(static_cast<const void*>(&g0::quant8))}, },
{ kTfLiteArenaRw, kTfLiteInt8, (int32_t*)(tensor_arena + 16), (TfLiteIntArray*)&g0::tensor_dimension9, 4, {kTfLiteAffineQuantization, const_cast<void*>(static_cast<const void*>(&g0::quant9))}, },
{ kTfLiteArenaRw, kTfLiteInt8, (int32_t*)(tensor_arena + 0), (TfLiteIntArray*)&g0::tensor_dimension9, 4, {kTfLiteAffineQuantization, const_cast<void*>(static_cast<const void*>(&g0::quant10))}, },
};

#ifndef TF_LITE_STATIC_MEMORY
TfLiteNode tflNodes[4] = {
{ (TfLiteIntArray*)&g0::inputs0, (TfLiteIntArray*)&g0::outputs0, (TfLiteIntArray*)&g0::inputs0, nullptr, nullptr, const_cast<void*>(static_cast<const void*>(&g0::opdata0)), nullptr, 0, },
{ (TfLiteIntArray*)&g0::inputs1, (TfLiteIntArray*)&g0::outputs1, (TfLiteIntArray*)&g0::inputs1, nullptr, nullptr, const_cast<void*>(static_cast<const void*>(&g0::opdata1)), nullptr, 0, },
{ (TfLiteIntArray*)&g0::inputs2, (TfLiteIntArray*)&g0::outputs2, (TfLiteIntArray*)&g0::inputs2, nullptr, nullptr, const_cast<void*>(static_cast<const void*>(&g0::opdata2)), nullptr, 0, },
{ (TfLiteIntArray*)&g0::inputs3, (TfLiteIntArray*)&g0::outputs3, (TfLiteIntArray*)&g0::inputs3, nullptr, nullptr, const_cast<void*>(static_cast<const void*>(&g0::opdata3)), nullptr, 0, },
};
#else
TfLiteNode tflNodes[4] = {
{ (TfLiteIntArray*)&g0::inputs0, (TfLiteIntArray*)&g0::outputs0, (TfLiteIntArray*)&g0::inputs0, nullptr, const_cast<void*>(static_cast<const void*>(&g0::opdata0)), nullptr, 0, },
{ (TfLiteIntArray*)&g0::inputs1, (TfLiteIntArray*)&g0::outputs1, (TfLiteIntArray*)&g0::inputs1, nullptr, const_cast<void*>(static_cast<const void*>(&g0::opdata1)), nullptr, 0, },
{ (TfLiteIntArray*)&g0::inputs2, (TfLiteIntArray*)&g0::outputs2, (TfLiteIntArray*)&g0::inputs2, nullptr, const_cast<void*>(static_cast<const void*>(&g0::opdata2)), nullptr, 0, },
{ (TfLiteIntArray*)&g0::inputs3, (TfLiteIntArray*)&g0::outputs3, (TfLiteIntArray*)&g0::inputs3, nullptr, const_cast<void*>(static_cast<const void*>(&g0::opdata3)), nullptr, 0, },
};
#endif

used_operators_e used_ops[] =
{OP_FULLY_CONNECTED, OP_FULLY_CONNECTED, OP_FULLY_CONNECTED, OP_SOFTMAX, };


// Indices into tflTensors and tflNodes for subgraphs
const size_t tflTensors_subgraph_index[] = {0, 11, };
const size_t tflNodes_subgraph_index[] = {0, 4, };

// Input/output tensors
static const int in_tensor_indices[] = {
  0, 
};

static const int out_tensor_indices[] = {
  10, 
};


size_t current_subgraph_index = 0;

static void init_tflite_tensor(size_t i, TfLiteTensor *tensor) {
  tensor->type = tensorData[i].type;
  tensor->is_variable = false;

#if defined(EI_CLASSIFIER_ALLOCATION_HEAP)
  tensor->allocation_type = tensorData[i].allocation_type;
#else
  tensor->allocation_type = (tensor_arena <= tensorData[i].data && tensorData[i].data < tensor_arena + kTensorArenaSize) ? kTfLiteArenaRw : kTfLiteMmapRo;
#endif
  tensor->bytes = tensorData[i].bytes;
  tensor->dims = tensorData[i].dims;

#if defined(EI_CLASSIFIER_ALLOCATION_HEAP)
  if(tensor->allocation_type == kTfLiteArenaRw){
    uint8_t* start = (uint8_t*) ((uintptr_t)tensorData[i].data + (uintptr_t) tensor_arena);

    tensor->data.data =  start;
  }
  else {
      tensor->data.data = tensorData[i].data;
  }
#else
  tensor->data.data = tensorData[i].data;
#endif // EI_CLASSIFIER_ALLOCATION_HEAP
  tensor->quantization = tensorData[i].quantization;
  if (tensor->quantization.type == kTfLiteAffineQuantization) {
    TfLiteAffineQuantization const* quant = ((TfLiteAffineQuantization const*)(tensorData[i].quantization.params));
    tensor->params.scale = quant->scale->data[0];
    tensor->params.zero_point = quant->zero_point->data[0];
  }

}

static void init_tflite_eval_tensor(int i, TfLiteEvalTensor *tensor) {

  tensor->type = tensorData[i].type;

  tensor->dims = tensorData[i].dims;

#if defined(EI_CLASSIFIER_ALLOCATION_HEAP)
  auto allocation_type = tensorData[i].allocation_type;
  if(allocation_type == kTfLiteArenaRw) {
    uint8_t* start = (uint8_t*) ((uintptr_t)tensorData[i].data + (uintptr_t) tensor_arena);

    tensor->data.data =  start;
  }
  else {
    tensor->data.data = tensorData[i].data;
  }
#else
  tensor->data.data = tensorData[i].data;
#endif // EI_CLASSIFIER_ALLOCATION_HEAP
}

static void* overflow_buffers[EI_MAX_OVERFLOW_BUFFER_COUNT];
static size_t overflow_buffers_ix = 0;
static void * AllocatePersistentBufferImpl(struct TfLiteContext* ctx,
                                       size_t bytes) {
  void *ptr;
  uint32_t align_bytes = (bytes % 16) ? 16 - (bytes % 16) : 0;

  if (current_location - (bytes + align_bytes) < tensor_boundary) {
    if (overflow_buffers_ix > EI_MAX_OVERFLOW_BUFFER_COUNT - 1) {
      ei_printf("ERR: Failed to allocate persistent buffer of size %d, does not fit in tensor arena and reached EI_MAX_OVERFLOW_BUFFER_COUNT\n",
        (int)bytes);
      return NULL;
    }

    // OK, this will look super weird, but.... we have CMSIS-NN buffers which
    // we cannot calculate beforehand easily.
    ptr = ei_calloc(bytes, 1);
    if (ptr == NULL) {
      ei_printf("ERR: Failed to allocate persistent buffer of size %d\n", (int)bytes);
      return NULL;
    }
    overflow_buffers[overflow_buffers_ix++] = ptr;
    return ptr;
  }

  current_location -= bytes;

  // align to the left aligned boundary of 16 bytes
  current_location -= 15; // for alignment
  current_location += 16 - ((uintptr_t)(current_location) & 15);

  ptr = current_location;
  memset(ptr, 0, bytes);

  return ptr;
}

typedef struct {
  size_t bytes;
  void *ptr;
} scratch_buffer_t;

static scratch_buffer_t scratch_buffers[EI_MAX_SCRATCH_BUFFER_COUNT];
static size_t scratch_buffers_ix = 0;

static TfLiteStatus RequestScratchBufferInArenaImpl(struct TfLiteContext* ctx, size_t bytes,
                                                int* buffer_idx) {
  if (scratch_buffers_ix > EI_MAX_SCRATCH_BUFFER_COUNT - 1) {
    ei_printf("ERR: Failed to allocate scratch buffer of size %d, reached EI_MAX_SCRATCH_BUFFER_COUNT\n",
      (int)bytes);
    return kTfLiteError;
  }

  scratch_buffer_t b;
  b.bytes = bytes;

  b.ptr = AllocatePersistentBufferImpl(ctx, b.bytes);
  if (!b.ptr) {
    ei_printf("ERR: Failed to allocate scratch buffer of size %d\n",
      (int)bytes);
    return kTfLiteError;
  }

  scratch_buffers[scratch_buffers_ix] = b;
  *buffer_idx = scratch_buffers_ix;

  scratch_buffers_ix++;

  return kTfLiteOk;
}

static void* GetScratchBufferImpl(struct TfLiteContext* ctx, int buffer_idx) {
  if (buffer_idx > (int)scratch_buffers_ix) {
    return NULL;
  }
  return scratch_buffers[buffer_idx].ptr;
}

static const uint16_t TENSOR_IX_UNUSED = 0x7FFF;

static void ResetTensors() {
  for (size_t ix = 0; ix < MAX_TFL_TENSOR_COUNT; ix++) {
    tflTensors[ix].index = TENSOR_IX_UNUSED;
  }
  for (size_t ix = 0; ix < MAX_TFL_EVAL_COUNT; ix++) {
    tflEvalTensors[ix].index = TENSOR_IX_UNUSED;
  }
}

static TfLiteTensor* GetTensorImpl(const struct TfLiteContext* context,
                               int tensor_idx) {

  tensor_idx = tflTensors_subgraph_index[current_subgraph_index] + tensor_idx;

  for (size_t ix = 0; ix < MAX_TFL_TENSOR_COUNT; ix++) {
    // already used? OK!
    if (tflTensors[ix].index == tensor_idx) {
      return &tflTensors[ix].tensor;
    }
    // passed all the ones we've used, so end of the list?
    if (tflTensors[ix].index == TENSOR_IX_UNUSED) {
      // init the tensor
      init_tflite_tensor(tensor_idx, &tflTensors[ix].tensor);
      tflTensors[ix].index = tensor_idx;
      return &tflTensors[ix].tensor;
    }
  }

  ei_printf("ERR: GetTensor called beyond MAX_TFL_TENSOR_COUNT (%d)\n", MAX_TFL_TENSOR_COUNT);
  return nullptr;
}

static TfLiteEvalTensor* GetEvalTensorImpl(const struct TfLiteContext* context,
                                       int tensor_idx) {

  tensor_idx = tflTensors_subgraph_index[current_subgraph_index] + tensor_idx;

  for (size_t ix = 0; ix < MAX_TFL_EVAL_COUNT; ix++) {
    // already used? OK!
    if (tflEvalTensors[ix].index == tensor_idx) {
      return &tflEvalTensors[ix].tensor;
    }
    // passed all the ones we've used, so end of the list?
    if (tflEvalTensors[ix].index == TENSOR_IX_UNUSED) {
      // init the tensor
      init_tflite_eval_tensor(tensor_idx, &tflEvalTensors[ix].tensor);
      tflEvalTensors[ix].index = tensor_idx;
      return &tflEvalTensors[ix].tensor;
    }
  }

  ei_printf("ERR: GetTensor called beyond MAX_TFL_EVAL_COUNT (%d)\n", (int)MAX_TFL_EVAL_COUNT);
  return nullptr;
}

class EonMicroContext : public MicroContext {
 public:
 
  EonMicroContext(): MicroContext(nullptr, nullptr, nullptr) { }

  void* AllocatePersistentBuffer(size_t bytes) {
    return AllocatePersistentBufferImpl(nullptr, bytes);
  }

  TfLiteStatus RequestScratchBufferInArena(size_t bytes,
                                           int* buffer_index) {
  return RequestScratchBufferInArenaImpl(nullptr, bytes, buffer_index);
  }

  void* GetScratchBuffer(int buffer_index) {
    return GetScratchBufferImpl(nullptr, buffer_index);
  }
 
  TfLiteTensor* AllocateTempTfLiteTensor(int tensor_index) {
    return GetTensorImpl(nullptr, tensor_index);
  }

  void DeallocateTempTfLiteTensor(TfLiteTensor* tensor) {
    return;
  }

  bool IsAllTempTfLiteTensorDeallocated() {
    return true;
  }

  TfLiteEvalTensor* GetEvalTensor(int tensor_index) {
    return GetEvalTensorImpl(nullptr, tensor_index);
  }

};


} // namespace

TfLiteStatus tflite_learn_866372_3_init( void*(*alloc_fnc)(size_t,size_t) ) {
#ifdef EI_CLASSIFIER_ALLOCATION_HEAP
  tensor_arena = (uint8_t*) alloc_fnc(16, kTensorArenaSize);
  if (!tensor_arena) {
    ei_printf("ERR: failed to allocate tensor arena\n");
    return kTfLiteError;
  }
#else
  memset(tensor_arena, 0, kTensorArenaSize);
#endif
  tensor_boundary = tensor_arena;
  current_location = tensor_arena + kTensorArenaSize;

  EonMicroContext micro_context_;
  
  // Set microcontext as the context ptr
  ctx.impl_ = static_cast<void*>(&micro_context_);
  // Setup tflitecontext functions
  ctx.AllocatePersistentBuffer = &AllocatePersistentBufferImpl;
  ctx.RequestScratchBufferInArena = &RequestScratchBufferInArenaImpl;
  ctx.GetScratchBuffer = &GetScratchBufferImpl;
  ctx.GetTensor = &GetTensorImpl;
  ctx.GetEvalTensor = &GetEvalTensorImpl;
  ctx.ReportError = &MicroContextReportOpError;

  ctx.tensors_size = 11;
  for (size_t i = 0; i < 11; ++i) {
    TfLiteTensor tensor;
    init_tflite_tensor(i, &tensor);
    if (tensor.allocation_type == kTfLiteArenaRw) {
      auto data_end_ptr = (uint8_t*)tensor.data.data + tensorData[i].bytes;
      if (data_end_ptr > tensor_boundary) {
        tensor_boundary = data_end_ptr;
      }
    }
  }

  if (tensor_boundary > current_location /* end of arena size */) {
    ei_printf("ERR: tensor arena is too small, does not fit model - even without scratch buffers\n");
    return kTfLiteError;
  }

  registrations[OP_FULLY_CONNECTED] = Register_FULLY_CONNECTED();
  registrations[OP_SOFTMAX] = Register_SOFTMAX();

  for (size_t g = 0; g < 1; ++g) {
    current_subgraph_index = g;
    for(size_t i = tflNodes_subgraph_index[g]; i < tflNodes_subgraph_index[g+1]; ++i) {
      if (registrations[used_ops[i]].init) {
        tflNodes[i].user_data = registrations[used_ops[i]].init(&ctx, (const char*)tflNodes[i].builtin_data, 0);
      }
    }
  }
  current_subgraph_index = 0;

  for(size_t g = 0; g < 1; ++g) {
    current_subgraph_index = g;
    for(size_t i = tflNodes_subgraph_index[g]; i < tflNodes_subgraph_index[g+1]; ++i) {
      if (registrations[used_ops[i]].prepare) {
        ResetTensors();
        TfLiteStatus status = registrations[used_ops[i]].prepare(&ctx, &tflNodes[i]);
        if (status != kTfLiteOk) {
          return status;
        }
      }
    }
  }
  current_subgraph_index = 0;

  return kTfLiteOk;
}

TfLiteStatus tflite_learn_866372_3_input(int index, TfLiteTensor *tensor) {
  init_tflite_tensor(in_tensor_indices[index], tensor);
  return kTfLiteOk;
}

TfLiteStatus tflite_learn_866372_3_output(int index, TfLiteTensor *tensor) {
  init_tflite_tensor(out_tensor_indices[index], tensor);
  return kTfLiteOk;
}

TfLiteStatus tflite_learn_866372_3_invoke() {
  for (size_t i = 0; i < 4; ++i) {
    ResetTensors();

    TfLiteStatus status = registrations[used_ops[i]].invoke(&ctx, &tflNodes[i]);

#if EI_CLASSIFIER_PRINT_STATE
    ei_printf("layer %lu\n", i);
    ei_printf("    inputs:\n");
    for (size_t ix = 0; ix < tflNodes[i].inputs->size; ix++) {
      auto d = tensorData[tflNodes[i].inputs->data[ix]];

      size_t data_ptr = (size_t)d.data;

      if (d.allocation_type == kTfLiteArenaRw) {
        data_ptr = (size_t)tensor_arena + data_ptr;
      }

      if (d.type == TfLiteType::kTfLiteInt8) {
        int8_t* data = (int8_t*)data_ptr;
        ei_printf("        %lu (%zu bytes, ptr=%p, alloc_type=%d, type=%d): ", ix, d.bytes, data, (int)d.allocation_type, (int)d.type);
        for (size_t jx = 0; jx < d.bytes; jx++) {
          ei_printf("%d ", data[jx]);
        }
      }
      else {
        float* data = (float*)data_ptr;
        ei_printf("        %lu (%zu bytes, ptr=%p, alloc_type=%d, type=%d): ", ix, d.bytes, data, (int)d.allocation_type, (int)d.type);
        for (size_t jx = 0; jx < d.bytes / 4; jx++) {
          ei_printf("%f ", data[jx]);
        }
      }
      ei_printf("\n");
    }
    ei_printf("\n");

    ei_printf("    outputs:\n");
    for (size_t ix = 0; ix < tflNodes[i].outputs->size; ix++) {
      auto d = tensorData[tflNodes[i].outputs->data[ix]];

      size_t data_ptr = (size_t)d.data;

      if (d.allocation_type == kTfLiteArenaRw) {
        data_ptr = (size_t)tensor_arena + data_ptr;
      }

      if (d.type == TfLiteType::kTfLiteInt8) {
        int8_t* data = (int8_t*)data_ptr;
        ei_printf("        %lu (%zu bytes, ptr=%p, alloc_type=%d, type=%d): ", ix, d.bytes, data, (int)d.allocation_type, (int)d.type);
        for (size_t jx = 0; jx < d.bytes; jx++) {
          ei_printf("%d ", data[jx]);
        }
      }
      else {
        float* data = (float*)data_ptr;
        ei_printf("        %lu (%zu bytes, ptr=%p, alloc_type=%d, type=%d): ", ix, d.bytes, data, (int)d.allocation_type, (int)d.type);
        for (size_t jx = 0; jx < d.bytes / 4; jx++) {
          ei_printf("%f ", data[jx]);
        }
      }
      ei_printf("\n");
    }
    ei_printf("\n");
#endif // EI_CLASSIFIER_PRINT_STATE

    if (status != kTfLiteOk) {
      return status;
    }
  }
  return kTfLiteOk;
}

TfLiteStatus tflite_learn_866372_3_reset( void (*free_fnc)(void* ptr) ) {
#ifdef EI_CLASSIFIER_ALLOCATION_HEAP
  free_fnc(tensor_arena);
#endif

  // scratch buffers are allocated within the arena, so just reset the counter so memory can be reused
  scratch_buffers_ix = 0;

  // overflow buffers are on the heap, so free them first
  for (size_t ix = 0; ix < overflow_buffers_ix; ix++) {
    ei_free(overflow_buffers[ix]);
  }
  overflow_buffers_ix = 0;
  return kTfLiteOk;
}
